  -4.2560307192676633e-01   3.4190815174599509e-01   7.6315369610919448e-01
  -5.0870638742123153e-01   7.4999977532420281e-01  -1.4495918825092904e-01
  -1.8101455849977526e+00  -2.0304148760753264e+00  -6.0411406070544404e-01
  -2.2657640051002864e-01   2.8418689001888736e-01  -5.4983298533641445e-01
  -1.7669173961322244e+00  -1.9490943512649317e+00  -2.5415027512966121e-01
  -4.1692139405504264e-01   1.6001637862497515e+00  -1.2873302078542875e-01
  -8.8862624367427501e-01  -1.7605443566290750e+00   1.0642793213143580e+00
  -1.1773072571848169e+00  -5.1942889892928756e-01   1.0894652319511338e+00
   6.0455132600665540e-01   1.1615232689989050e+00   7.0774286245169693e-01
   3.2567402273685625e-01  -2.1173125370175419e-01   2.2553587382769860e+00
  -6.0348513771663481e-01  -1.2713554837776553e-01   5.2541298345305198e-01
  -1.2375279801476617e+00   1.5873932347782809e+00  -1.5496461881098926e+00
   8.2137680413521777e-02  -1.6878735401113634e+00  -9.7435773042249463e-01
   5.5956749856750709e-01   7.9976649384534776e-02   2.5285612818338525e+00
   1.9694642901365060e+00  -8.8248733020302916e-01  -4.0648682146708158e-02
   1.8130896522265028e+00   1.9151445278407833e+00  -4.0098598353524043e-02
   1.3527460767710317e-01  -1.7197432729214790e+00   2.3798372193592965e-01
   1.4711725330278953e+00   1.6865921995527260e-02  -1.4462041193193909e+00
   4.9830591597523538e-01   2.6072906476238078e-01   5.3865409361413363e-01
  -1.3623041140500769e+00  -1.0463379338912138e+00  -9.0305709085748154e-01
