   8.5386340808578098e-02   1.2168336775998929e+00   6.3498638573249389e-01   5.1120733118985773e-01  -9.9231384683609691e-01   4.4300819024823995e-02  -3.4861026675838391e-01  -2.4091315734994025e+00  -2.1087216723552196e+00   8.2904800549484647e-01
   1.2168336775998929e+00  -2.6810158414378629e+00  -1.0086476102244060e+00  -5.2773253458362723e-01  -1.7447176477763660e+00   1.2700491513116783e+00  -1.7188257723835134e+00  -1.0482105582745262e+00   5.8870438154161586e-01   9.8648990406895620e-01
   6.3498638573249389e-01  -1.0086476102244060e+00  -4.5511366523293484e+00  -1.7811789278562944e+00  -1.2676847875418913e+00   1.8012674444141830e+00   2.2566689114319305e-01  -2.4352950486611344e-01  -1.2214114994740413e+00  -3.8837958016105206e-01
   5.1120733118985773e-01  -5.2773253458362723e-01  -1.7811789278562944e+00  -3.9284603664179650e-02  -2.8953103001035224e-01  -1.0701341904519812e+00   6.5908350196890186e-01  -9.0665884215726089e-01  -2.0915917545583729e-01   1.5262979711433926e+00
  -9.9231384683609691e-01  -1.7447176477763660e+00  -1.2676847875418913e+00  -2.8953103001035224e-01   9.8370047892765777e-01   5.7622612264164974e-01  -5.1598976976836219e-01   7.0207828607470024e-01  -1.3837273951904057e+00  -8.9760478880846939e-01
   4.4300819024823995e-02   1.2700491513116783e+00   1.8012674444141830e+00  -1.0701341904519812e+00   5.7622612264164974e-01   1.9773436641940274e+00  -1.4124899264118316e+00   5.5402151958725199e-01   7.9460572972005294e-01  -1.6741108704571861e-01
  -3.4861026675838391e-01  -1.7188257723835134e+00   2.2566689114319305e-01   6.5908350196890186e-01  -5.1598976976836219e-01  -1.4124899264118316e+00   6.0229380513953457e-01   2.9674058193847880e-01   1.7203897333941449e+00  -1.6388063914697200e+00
  -2.4091315734994025e+00  -1.0482105582745262e+00  -2.4352950486611344e-01  -9.0665884215726089e-01   7.0207828607470024e-01   5.5402151958725199e-01   2.9674058193847880e-01   1.7583815993524995e-01  -1.1117213506926111e+00   1.4076766873626008e+00
  -2.1087216723552196e+00   5.8870438154161586e-01  -1.2214114994740413e+00  -2.0915917545583729e-01  -1.3837273951904057e+00   7.9460572972005294e-01   1.7203897333941449e+00  -1.1117213506926111e+00   1.5225610236606196e-01   1.2553884662044639e+00
   8.2904800549484647e-01   9.8648990406895620e-01  -3.8837958016105206e-01   1.5262979711433926e+00  -8.9760478880846939e-01  -1.6741108704571861e-01  -1.6388063914697200e+00   1.4076766873626008e+00   1.2553884662044639e+00  -7.6890405967427911e-01
